const static Weight_t ref1_weights[9000] = {92,137,114,133,71,15,60,144,105,93,182,56,39,136,76,60,40,83,79,40,105,-17,162,98,67,56,61,49,56,75,89,69,112,41,-34,90,152,59,34,129,11,7,86,100,35,113,39,35,25,61,77,99,108,42,104,113,83,56,129,4,45,89,3,8,96,159,62,65,60,40,21,65,86,1,129,25,52,133,87,60,128,25,44,78,147,37,141,197,14,43,113,56,-4,116,199,75,56,117,69,7,-3,106,73,108,16,30,135,14,5,88,-10,0,81,83,46,63,176,29,-2,77,101,86,105,69,163,69,155,7,52,85,24,46,24,148,124,65,68,94,62,47,67,39,86,113,133,62,13,83,45,54,90,70,109,16,-59,60,95,112,-4,56,126,101,15,125,38,7,140,110,117,67,111,-2,89,2,32,49,95,54,47,35,62,15,65,206,16,62,65,45,74,122,83,-37,93,60,-5,93,91,59,20,49,110,101,4,25,33,5,123,108,101,6,9,127,17,63,89,127,70,18,95,118,52,40,102,64,137,63,138,-7,150,82,139,-7,62,122,27,85,101,96,17,37,12,50,109,94,-10,117,46,13,17,124,69,78,-37,48,107,108,2,24,146,30,0,38,96,70,53,133,87,15,91,126,115,111,117,102,115,158,123,64,95,80,165,102,83,-18,80,89,61,58,155,-1,24,29,143,90,43,138,16,29,52,96,57,132,15,58,98,86,53,46,68,50,112,66,9,19,82,87,43,7,43,11,56,172,89,22,83,132,94,83,37,9,117,122,57,37,61,158,117,132,166,9,104,76,79,91,90,98,18,88,-16,29,120,36,87,175,60,17,94,78,-6,37,80,115,-24,91,51,114,81,92,72,13,162,115,88,65,22,59,121,41,39,50,96,90,173,46,106,62,31,44,7,17,58,70,54,76,87,70,58,19,109,18,89,5,76,152,53,81,37,59,60,120,99,43,122,77,15,49,43,83,41,30,136,68,82,78,70,27,100,150,62,37,84,113,91,59,117,-24,17,122,93,88,106,87,24,159,58,92,60,0,70,46,102,-57,13,85,4,122,116,96,48,83,118,82,49,5,72,158,83,73,31,37,109,76,101,-7,66,79,127,107,84,64,1,63,60,44,75,-24,108,90,59,104,103,100,25,66,97,62,94,-47,69,111,85,59,84,163,77,87,2,154,20,17,81,120,121,77,130,35,37,134,103,-15,45,79,80,36,66,8,48,-31,170,79,95,44,9,146,14,23,127,79,68,116,88,33,78,64,-25,77,68,19,124,110,97,80,100,4,51,100,134,75,47,68,100,96,86,25,54,34,-16,86,160,73,40,43,52,57,19,109,43,109,113,36,60,16,134,107,76,114,114,151,23,0,139,110,51,-7,31,54,55,114,151,47,54,107,148,19,-66,91,55,-8,140,44,-3,61,89,128,50,42,78,8,40,104,47,16,100,50,152,142,53,88,120,94,62,82,40,70,115,87,92,98,88,64,9,25,100,-24,3,166,-40,141,83,53,58,147,87,-9,19,-8,-13,91,148,-26,75,103,100,2,50,107,34,-38,95,2,75,123,-12,116,94,88,59,138,92,129,76,81,43,54,153,100,25,85,89,-5,71,29,124,12,61,135,102,143,35,108,49,79,64,20,33,54,17,108,52,-5,75,123,-4,-23,49,65,42,60,78,-18,38,143,111,22,41,118,61,20,94,-12,44,77,84,65,35,61,133,121,20,-15,131,94,117,11,71,88,-39,129,97,107,70,121,9,45,11,-8,121,21,53,52,11,40,71,117,17,20,24,123,85,-32,26,102,77,113,-48,109,97,49,62,31,114,83,63,120,-6,40,86,174,84,-79,92,85,96,65,197,44,61,54,53,182,11,28,8,72,24,131,50,118,96,19,66,-47,49,181,108,41,16,53,49,-2,72,93,189,43,37,55,74,42,69,9,154,62,73,69,18,62,88,117,43,38,126,85,71,72,114,27,-8,103,59,117,78,33,192,-41,-13,144,115,12,56,0,28,77,62,139,84,88,13,91,73,1,89,85,80,48,81,109,41,-44,126,103,35,108,72,27,29,89,-8,95,50,128,138,75,93,115,82,-14,33,65,74,113,-12,10,-46,-14,60,9,-15,16,-14,75,-53,43,43,55,-56,45,74,29,8,-34,58,39,50,32,54,95,57,34,74,8,50,22,30,114,62,58,14,40,76,40,-16,2,71,-10,-32,46,51,42,46,46,35,-54,23,15,-3,15,-56,-88,-13,-74,19,-39,25,30,-18,-71,11,32,-3,37,-14,39,-26,8,34,29,84,39,33,-12,29,-19,54,-14,25,14,-16,-35,45,60,48,3,44,6,-31,28,45,81,-24,10,-46,17,-15,62,67,13,20,15,46,93,121,44,80,16,90,-40,56,29,61,54,21,33,26,-64,9,-38,31,-11,69,133,29,44,-56,-14,-105,-39,22,-110,1,45,48,-35,8,-16,-149,-34,65,46,44,73,55,1,57,42,56,141,-77,36,47,118,60,21,2,12,-26,3,5,3,40,-8,57,-5,45,62,44,16,6,45,-25,78,19,-47,33,-42,-60,-1,29,56,-7,93,1,-34,51,26,19,50,92,37,0,-17,-59,67,15,30,22,-18,48,-39,39,91,7,17,-36,62,7,37,-17,29,-27,35,-81,88,30,-55,40,37,83,-2,96,-106,33,-51,89,53,-24,58,-14,39,-48,93,38,89,20,35,-32,30,49,39,49,49,29,11,122,76,39,-36,8,102,12,21,21,23,-6,9,-5,1,-38,45,22,-6,-46,19,20,-37,-19,-4,-56,14,17,8,-73,-12,66,47,-9,-38,20,13,99,19,115,0,38,-10,46,76,-2,71,108,74,70,62,27,118,37,-14,-21,148,54,6,45,33,37,-48,35,-90,-39,-21,41,-25,-58,-112,-17,43,86,-8,-73,-25,12,53,-47,-16,19,35,38,-61,-33,-5,0,8,12,-22,-48,-31,49,-4,-16,24,27,47,57,22,13,42,-7,42,35,17,44,29,37,80,48,112,128,101,53,119,78,43,22,-64,5,86,101,41,104,-16,62,66,39,-77,16,-60,8,-18,-7,27,-46,55,33,33,42,4,123,-16,92,61,112,38,17,12,8,-5,-9,58,107,-1,91,14,30,9,1,-38,-74,-24,-36,7,34,4,-49,-68,-15,27,-24,20,35,-17,-23,78,22,-56,-32,36,36,26,77,1,35,-18,34,-70,4,88,-35,50,-1,112,47,53,68,-5,16,-6,0,85,33,31,-4,49,0,-26,-14,93,63,90,-29,75,19,66,23,-64,45,21,-38,0,40,6,-105,19,17,24,-15,51,105,61,91,-33,-14,18,-11,0,-36,2,46,-32,33,68,86,-57,80,107,106,51,-39,4,-51,-10,-82,87,-15,-29,8,34,71,6,28,-20,6,29,34,-6,24,76,29,-76,-28,23,66,38,129,73,-32,82,33,17,-8,-51,2,80,42,-6,43,57,64,48,-12,10,-22,-24,-84,-88,40,-17,98,57,3,-44,-17,-5,47,-75,-106,81,85,67,51,24,-10,5,2,53,-49,-8,65,33,-11,46,24,18,73,20,64,-104,83,51,-28,8,13,77,49,-20,35,66,12,39,-62,-21,0,-82,-72,-59,-77,19,58,66,5,-53,34,84,68,117,3,63,76,-31,-13,41,-9,-22,14,59,99,5,101,-76,-55,-32,11,-19,30,61,-30,-69,-34,2,-15,-63,-16,43,-2,-7,65,117,67,-9,-94,-16,-15,-15,48,53,3,74,111,59,21,31,19,-21,47,-9,13,10,119,-11,-65,8,72,7,-68,20,-78,39,-23,-7,-69,37,22,-64,-12,-14,-24,10,2,-59,-43,13,116,95,69,-66,-10,-9,101,-30,-60,6,-26,32,-41,47,77,96,147,83,-29,55,28,54,89,-31,-71,70,162,49,-55,4,71,82,19,42,-11,27,95,0,-113,-33,2,-32,-36,-29,-16,4,70,50,-76,-28,-38,117,79,-17,-87,10,-7,25,-39,65,32,41,-62,-13,80,8,80,-4,34,-10,49,133,76,69,-82,-38,70,75,5,54,33,48,42,-17,-69,-29,-7,-7,35,73,56,72,-35,22,-28,41,-44,62,-58,-134,-87,58,33,-48,-30,20,75,-79,52,-21,-65,5,48,30,74,104,-17,50,-111,91,-12,70,89,-9,2,-53,43,29,88,20,92,19,124,9,-2,-12,76,-97,-46,-32,-3,-34,-69,-46,14,27,144,14,68,-38,-48,77,62,-121,-23,-28,67,-25,47,47,-17,-33,30,-20,17,-3,33,-17,-30,-34,165,78,86,21,-57,-41,-10,18,60,67,64,25,0,0,-108,31,12,17,12,-5,89,-18,-11,-36,10,-15,37,14,-50,23,-9,30,30,-98,23,65,66,-3,70,0,-9,-20,-5,-13,98,68,67,44,46,48,-13,73,27,17,40,74,48,80,2,110,7,73,-14,91,-47,33,59,21,15,106,13,-6,30,24,82,19,90,33,57,86,87,32,73,43,71,44,78,60,107,-4,64,10,79,18,21,-24,33,155,157,166,130,82,123,13,149,11,86,66,158,111,0,92,37,83,-48,106,11,104,7,0,38,144,107,83,70,64,68,70,105,33,23,61,52,101,16,56,23,26,-14,24,114,72,115,58,36,66,97,68,80,59,88,28,89,57,20,34,95,42,18,30,99,14,61,41,134,56,104,112,53,126,-4,91,-47,97,20,111,43,38,61,81,119,116,37,40,47,147,85,100,118,88,30,33,70,101,84,28,71,-36,59,11,3,54,33,121,28,134,17,60,35,135,96,35,111,85,6,11,36,67,71,78,95,78,11,-44,31,69,110,97,22,98,-13,69,51,212,81,42,52,34,85,14,154,37,60,87,58,88,75,-22,57,76,71,36,48,44,7,61,40,68,59,39,-9,103,64,88,-4,114,-16,85,-5,28,49,32,55,57,33,-9,31,44,59,94,85,48,8,34,57,89,132,31,64,-14,26,13,103,-6,53,28,69,15,86,43,60,76,136,18,45,25,84,29,21,5,5,30,59,35,25,64,70,35,-12,103,-34,76,-36,141,30,51,35,5,40,-20,57,9,67,16,88,59,107,78,57,11,9,85,44,69,87,78,48,67,112,32,64,-18,51,26,103,51,128,91,177,37,154,68,116,24,86,107,34,97,118,86,55,44,78,96,81,2,33,61,36,71,21,92,0,116,62,102,81,60,139,131,154,66,64,43,83,103,60,94,78,41,87,30,81,43,99,-23,17,-55,21,-36,56,30,9,69,9,39,-35,68,99,63,74,-1,143,51,61,92,82,98,13,126,22,98,-34,35,1,12,32,12,13,48,67,84,77,56,46,35,92,57,34,-1,101,64,107,36,131,97,148,121,31,77,8,89,11,77,118,23,49,82,99,137,62,106,31,60,15,142,18,57,121,73,77,29,116,13,92,47,22,35,6,128,20,69,83,143,95,61,85,-2,34,116,32,29,65,152,-2,-9,-6,71,59,141,29,31,53,142,109,76,112,-7,-7,33,69,120,94,145,37,88,46,77,15,-48,67,80,72,94,86,58,80,99,84,-1,56,-9,31,-16,-7,12,134,80,130,48,82,96,55,-42,-11,85,98,0,76,73,111,124,69,73,17,39,2,141,62,37,2,-30,13,72,41,84,66,73,7,145,107,34,60,80,57,11,42,33,51,70,78,-8,83,96,75,-39,15,-7,101,46,112,32,80,163,139,97,3,-16,-2,21,38,77,77,88,112,47,95,33,80,58,60,72,75,-15,72,15,88,54,72,37,34,-8,11,68,59,100,73,94,56,17,26,52,102,193,116,120,56,96,31,96,54,74,33,-27,-6,50,135,94,77,35,86,13,35,7,21,21,32,82,69,43,99,95,71,-2,103,101,63,15,69,41,129,102,71,58,-2,16,74,38,140,33,92,14,54,34,55,119,76,100,30,115,24,138,79,100,84,45,81,72,100,69,54,46,29,93,44,146,3,-6,-1,-5,57,36,18,61,58,-8,110,114,132,-6,34,45,14,63,89,9,12,-10,111,75,136,81,-37,41,41,16,28,64,94,36,33,96,66,134,78,69,-30,-16,47,40,72,14,85,39,85,4,-13,48,128,103,64,125,9,100,-25,57,-12,55,31,77,50,-23,-71,54,42,85,52,70,0,-21,14,60,64,56,102,74,39,22,56,-41,59,-2,10,32,97,120,115,32,34,-47,110,-25,114,34,192,58,66,52,22,31,-48,54,-23,5,-8,44,66,57,131,100,102,80,43,29,13,41,22,45,68,63,47,72,114,-23,54,-17,70,34,35,58,60,29,81,54,62,50,114,34,70,13,81,-47,50,51,73,29,114,98,8,142,79,101,84,54,103,-29,11,-14,24,10,73,75,101,79,72,25,66,62,61,4,89,22,98,113,139,41,103,40,141,5,26,-6,55,38,55,128,108,41,-11,57,17,106,57,136,44,96,40,86,73,32,73,87,131,12,80,117,118,46,21,19,60,63,8,50,24,68,97,74,71,-2,136,15,-32,-26,11,32,0,6,-18,-39,43,-31,-40,10,-9,-19,-28,98,-31,-2,-10,29,-80,-14,-59,72,49,34,-10,-13,41,-73,29,-27,43,4,-3,-45,48,36,59,-63,30,20,-55,-51,49,40,30,-12,20,-59,-11,-59,-48,48,5,-37,39,-31,-6,-56,50,-81,0,-4,-51,12,-9,28,-36,54,-31,26,-56,-42,6,16,9,66,-86,5,-65,2,36,-29,52,-28,-50,10,18,-35,8,17,18,-61,8,-27,35,-5,28,-54,2,-33,-8,-41,-34,-6,-53,48,-80,12,34,18,25,32,-42,-68,69,14,-34,-9,85,-2,-83,42,-50,54,-92,-20,-1,79,-4,1,10,22,-47,4,-79,-9,-30,66,1,23,-17,-66,-25,-20,-19,-86,109,-78,16,-29,67,-16,55,-103,-32,11,-60,65,7,52,-50,31,-37,-69,-5,10,-8,26,10,-14,-18,-2,11,2,22,28,13,40,-8,-26,2,-2,-50,-26,-67,44,-33,68,-67,-23,-16,-30,-33,22,89,-23,4,18,23,-55,63,-35,13,-92,42,-43,10,35,-18,-29,-28,44,-23,-6,-9,30,-29,17,-9,49,-31,13,-25,9,3,45,-20,14,-16,7,-24,-58,47,5,28,-51,-6,-48,-15,27,44,-35,-34,9,16,-95,9,-13,-29,5,16,-2,-12,-44,-3,20,45,-41,12,-32,65,-49,47,-21,39,-89,-4,20,-21,38,-9,23,-33,62,-95,81,-77,-44,-14,111,0,-64,5,-31,-25,-24,94,5,-12,-26,28,-25,54,-7,-27,18,-17,-86,17,-6,35,11,6,-66,58,-37,-18,14,7,37,-43,-42,30,-73,52,0,5,-11,-47,10,-42,19,-14,-35,-8,8,-1,-53,-18,57,24,29,-31,-12,-57,34,-71,52,-82,-33,-43,-89,36,-58,26,24,21,-4,-21,-18,38,-38,0,-40,84,-69,24,-82,32,-1,18,-4,10,-42,9,68,7,-2,-49,-38,23,37,-15,-6,21,-11,29,3,-30,23,-8,25,-55,25,-5,-18,20,37,2,12,-62,36,-57,-26,16,68,14,-51,23,-43,-66,22,-27,-25,1,-5,24,-51,50,37,15,-15,-20,-17,-2,35,20,-34,-25,20,20,4,-3,-19,16,47,-9,72,-78,-40,-15,-20,-25,7,-37,9,28,43,-75,8,-9,-3,-33,1,-4,-29,-2,-63,50,-38,-67,-12,33,55,-62,39,18,-14,32,-111,-24,3,23,-21,13,40,-20,6,-36,-12,135,-40,-14,-50,16,-40,-51,49,-64,5,-80,87,0,6,33,4,-22,-49,15,-17,-4,-14,7,-55,36,43,-38,-48,12,38,78,-88,78,-85,20,55,-23,-41,-42,35,9,-31,-28,-23,-16,16,2,7,-64,13,5,-45,4,-52,-31,-53,-42,29,51,-100,23,71,11,18,-67,-37,49,-27,-16,38,-56,-24,40,0,71,-25,-22,-48,-24,13,-20,-63,49,-14,9,-84,28,13,-21,-112,-27,107,11,-75,-2,-9,0,35,-19,-73,31,-67,-30,58,34,11,32,17,-54,35,-22,-3,6,-36,-1,35,-12,-2,-58,13,50,-19,-2,20,-22,-4,44,-99,-77,37,7,9,-19,-13,-44,-45,57,-26,-44,-11,66,31,20,-15,41,-37,-46,-20,-45,47,-78,78,28,-59,-11,-32,21,34,23,15,-14,-52,69,4,-41,-53,58,-38,-94,-7,100,-1,53,-3,6,-15,-46,38,-25,-20,6,47,-64,34,-71,13,0,-2,3,-38,-39,-13,46,-24,39,-26,-1,-31,-48,17,-17,-18,-44,26,-4,-2,-5,-19,6,-50,-22,19,-4,-65,-74,62,60,3,-55,28,29,-29,-32,-35,-25,-32,67,-17,-80,-24,7,7,85,-38,-42,16,-69,52,-32,17,-10,39,-16,-69,-12,-11,66,-45,-35,60,-85,57,-83,3,-16,49,-50,0,-42,28,16,-81,52,-11,-4,1,36,30,-54,19,27,-8,7,-75,1,4,-11,51,-99,45,9,-27,3,-16,-42,7,2,21,-20,-19,2,63,61,-147,39,-23,64,-82,41,-22,50,-15,-30,-17,42,36,-28,42,-30,6,20,17,-14,-40,3,-33,75,0,-56,-11,2,-5,14,28,-38,-86,20,10,55,-20,61,41,-23,-87,99,-85,26,26,-31,-79,-59,38,90,-78,8,10,22,-43,0,-52,5,47,-27,-5,49,-77,44,-31,-14,-28,0,18,33,-67,-15,-16,16,82,-23,-10,-8,-4,-51,33,3,1,9,5,24,8,18,-71,46,-58,-17,42,29,4,16,29,-69,-12,-34,-16,-14,53,41,-48,31,-46,-85,4,39,16,-74,34,19,-27,-60,65,26,11,-13,-35,-59,-13,23,56,-89,7,-26,-50,40,-23,43,-4,18,-24,10,15,-20,-38,-12,-49,-6,148,-60,-38,2,5,57,15,3,6,-20,-85,36,16,24,103,20,-126,-60,-54,33,-9,6,12,32,85,-56,34,41,-28,22,-36,-62,-66,55,28,53,52,-51,25,-54,-39,-26,15,65,31,40,36,14,10,-22,-32,54,-19,3,43,54,16,29,15,-7,-10,-125,47,52,21,34,88,22,-4,-51,15,12,21,3,-56,28,-36,1,-29,5,-24,4,-58,-5,40,-38,34,13,-23,20,32,3,-5,-34,57,48,25,8,64,-16,-51,-25,15,23,-101,42,-9,15,33,-19,-7,-38,56,3,-36,12,20,-44,-11,54,51,22,4,-140,-30,-10,-22,46,5,83,9,36,14,-135,14,56,31,21,29,91,-11,-105,45,-10,34,-44,61,-2,8,-15,-37,60,-13,-23,-59,-68,35,45,68,-9,-38,-12,-84,21,31,29,51,-14,56,-11,81,-27,-68,-28,-29,104,47,-42,61,-3,-7,-8,-9,-39,16,48,-43,-8,83,-54,-54,-9,-20,17,10,-15,-52,131,-7,-31,0,13,4,-80,97,17,-20,-39,25,-53,8,40,-2,-33,-11,19,-73,32,-18,55,-103,66,-59,-48,83,9,54,2,24,-72,-27,30,56,-25,43,-67,-74,3,27,47,6,76,59,35,3,24,-16,-62,96,1,66,5,-82,-37,-28,28,27,19,-23,-68,24,75,-21,43,24,-57,-56,26,58,31,26,-8,59,-5,4,-13,-23,55,23,87,-12,0,-58,43,60,0,-36,-2,-68,-32,39,67,37,-29,20,6,46,-118,-16,101,31,-33,-52,47,-54,19,83,59,-25,-41,15,2,-9,69,60,39,57,-35,49,-9,32,1,83,12,-16,27,-35,-48,20,51,5,-54,-22,28,7,54,20,8,-81,-52,78,-13,-12,50,6,1,29,-42,-76,92,-3,6,57,20,12,-32,43,-68,-26,-16,-77,-18,-68,22,-3,19,42,0,-47,-65,-21,7,-31,66,-59,-24,9,17,29,37,50,34,31,2,-34,82,30,-23,15,1,17,11,-23,-2,42,35,19,62,-33,-23,17,-11,50,-29,-74,-21,-8,47,-9,66,-24,0,75,-28,22,-12,37,-96,85,-42,-93,-19,-69,28,60,18,31,7,-2,-2,5,-107,-53,49,48,-3,76,-63,8,58,90,-9,3,-100,11,64,17,13,4,-74,1,26,-39,27,13,-21,10,29,23,-64,13,6,-29,58,27,-63,-70,-15,103,-29,-27,52,75,-35,30,36,-15,-25,-58,-20,-16,46,63,-30,-21,77,1,17,0,-54,21,6,-15,-84,-54,-67,-80,-8,79,-44,-17,8,90,-6,-50,11,34,38,4,33,-27,0,4,-36,66,-11,-51,-37,5,64,12,63,0,-44,-9,31,-19,-61,4,29,37,22,27,0,-93,-30,75,-12,13,-43,-6,8,-29,7,-12,73,41,17,52,-13,-139,103,25,-81,63,48,-5,-13,-30,79,87,-37,14,-43,-42,25,13,63,-105,-9,64,-12,-9,23,-56,25,-18,-58,71,-108,-40,114,60,17,1,-49,-13,-29,-42,9,-80,69,-5,21,-5,-48,22,99,4,29,17,-44,59,-30,-2,74,-38,-47,12,-51,59,33,16,52,-82,20,-13,-8,-37,0,91,42,-48,0,-63,-104,122,49,-67,27,8,56,55,-10,80,-8,-66,-31,-33,-20,23,-32,85,-40,-30,-30,-12,45,-9,-26,37,-44,-72,104,-45,-18,62,47,-39,-70,25,28,-69,23,17,31,73,18,-8,7,-1,53,11,-39,35,-15,-2,26,-23,59,32,-56,-39,-21,-37,-7,43,4,-39,13,-7,-10,-70,43,0,78,-4,-74,-1,-38,-12,-12,16,-36,-44,-12,82,-16,-37,12,104,-40,-35,-15,-40,-35,-19,91,-76,83,44,-1,16,-3,-68,59,31,-42,-3,-24,-3,5,51,4,-30,-51,77,35,-47,37,58,29,-21,111,-2,-39,76,-50,-53,50,46,-13,76,-38,-86,37,82,-48,-27,-15,42,-2,-2,92,-49,-59,12,-7,-100,-32,60,-90,2,-9,10,-57,123,58,-39,-17,-112,-13,97,70,-30,46,-4,-4,-121,-1,86,39,18,-19,104,-62,20,-48,42,-30,23,96,-97,17,-16,10,26,-12,-48,50,-28,16,31,51,17,-78,-70,98,54,-23,64,54,-55,-36,32,121,-94,82,62,-99,-62,23,2,3,-71,77,100,-42,35,-69,19,1,-22,-30,-19,0,-71,25,16,60,-45,90,29,-95,-16,-2,-48,49,6,-3,-8,-1,86,-14,-13,5,3,47,0,34,22,-23,-56,-22,-74,49,123,-57,-3,-12,-43,87,-5,-18,3,76,95,-77,-58,12,-60,-18,42,-72,-100,-126,-83,-123,-75,-186,-154,-97,-129,-82,-32,-142,-144,-61,-110,-139,-82,-63,-97,-129,-155,28,-98,-73,-106,-139,-39,-66,-140,-102,-64,-87,-86,-89,-57,-152,-65,-73,-81,-97,-112,-164,-54,-78,-167,-154,-14,-166,-80,-204,-94,-67,-128,-95,-169,-45,-168,-219,-84,-120,-156,-71,-108,-129,-170,-111,-77,-98,-143,-119,-87,-145,-183,-41,-124,-32,-147,-111,-17,-35,-76,-73,-166,-47,-178,-84,-106,-95,-86,-65,-75,-179,-149,-126,-17,-121,-104,-51,-54,-162,-156,-124,-1,-114,-44,-116,-36,-29,-109,-11,-59,-117,-141,-68,-99,-71,-112,-78,-76,-100,-163,-68,-36,-147,-163,-127,-68,-65,-110,4,-45,-153,-84,-141,-130,-110,-122,-121,-130,-45,-144,-162,-103,-91,-185,-138,-16,-100,-101,-83,-71,-130,-98,-113,-73,-43,-3,-87,-45,-91,-37,-51,-116,-108,-90,-119,-75,-52,-65,-130,-128,-37,-160,-12,-111,-83,-125,-123,-116,-47,-63,-155,-93,-91,-91,-106,-45,-74,-83,-68,-100,-74,-81,-109,-116,-59,-101,-159,-73,-143,-47,-90,-106,-159,-52,-131,-110,-6,-58,-122,-93,-87,-36,-145,-14,-52,-103,-150,-98,-43,-152,-114,-88,-84,-91,-61,-131,-62,-137,-52,-165,-11,-130,-94,-65,-100,-75,-118,-40,-105,-66,-124,-38,-122,-86,-154,-43,-60,-118,-141,-107,-91,-103,-53,-70,-142,-104,-119,-76,-67,-93,-117,-160,-144,-110,-116,-69,-103,-106,-169,-128,-58,-151,-79,-162,-163,-143,-99,-122,-81,-148,-121,-58,-69,-155,-77,-95,-12,-99,-66,-119,-98,-134,-74,-96,-77,-82,-140,-24,-89,-67,-179,-59,-132,-69,-161,-113,-86,-71,-86,-64,-57,-128,-82,-114,-65,-105,-104,-114,-128,-149,-161,-86,-14,-179,-109,-137,-175,-98,-98,-157,-139,-121,-139,-108,-128,-117,-54,-94,-33,-130,-55,-136,-46,-36,-102,-118,-162,-81,-71,-95,-165,-123,-59,-82,-143,-92,-121,-92,-102,-85,-138,-32,-148,39,-60,-19,-37,-112,-30,-86,-43,-120,-73,-129,-94,-45,-60,-179,-90,-115,-83,-220,-65,-123,-101,-173,-114,-161,-108,-101,-111,-75,-97,-26,-32,-135,-81,-59,-118,-138,-106,-119,-120,-67,-13,-67,-150,-46,-88,-95,-135,-127,-143,-183,-133,-129,-148,-114,-97,-156,-154,-81,-105,-85,-131,-89,-108,-127,-134,-138,-82,-126,8,-123,-147,-18,-65,-146,-146,-94,-150,-165,-11,-72,-129,-52,-126,-67,-67,-55,-111,-100,-125,-99,-112,-58,-63,-151,-162,-58,-39,-100,-126,-25,-94,-100,-95,-77,-163,-62,-93,-164,-100,-106,-43,-80,-98,-112,-122,-65,-145,-103,-93,-105,21,-183,-158,-78,-39,-117,-133,-98,-158,-47,-13,-145,-86,-60,-78,-29,-44,-21,-91,-86,-164,-47,-253,-124,-104,-84,-153,-101,-20,-57,-108,-118,-46,-124,-70,-140,-128,-11,-18,-157,-167,-160,-18,-56,-26,-100,1,-88,-128,-66,-186,-72,-85,-179,-84,-31,-60,-39,-63,-61,-109,-104,-112,-68,-117,-235,-142,-79,-144,-126,-5,-123,-95,-101,-155,-98,-99,-148,-102,-73,-29,-81,-135,-44,-65,-87,-41,-141,-119,-1,-117,-155,-107,-134,-70,-64,-83,-133,-94,-113,-12,-122,-184,-79,-94,-77,-10,-87,-92,-82,-113,-119,-71,-157,-160,-79,-125,-149,-143,-111,-118,-84,-99,-122,-56,-35,-96,-101,-123,-33,-105,-141,-102,-73,-106,-58,-70,-107,-17,-23,-57,-88,-181,-96,-59,-86,-83,-146,-141,-106,-166,-66,-64,-138,-68,-64,-91,-27,-73,-81,-140,-114,-176,-28,10,-87,5,-88,-49,-44,-104,-71,-5,-134,-128,-96,5,-130,-95,-61,-74,-139,-80,-38,-49,-124,-66,-142,-136,-65,-81,-123,-77,-27,-165,-40,-35,-60,-129,-96,-43,-108,-99,-46,25,-93,-98,-128,-53,-34,-95,-93,-51,-117,-94,-47,-52,-29,-24,-83,-15,-58,-94,18,-90,-95,-122,-143,-57,-14,-70,-77,-89,-83,-79,-56,-63,-84,-70,-83,-110,-135,-122,-114,-45,-123,-113,-67,-63,-68,-99,-92,-135,-138,-87,10,-65,-194,-102,-58,-74,-99,-179,31,-31,-61,-132,-46,-82,-74,-80,-59,-70,-133,63,-35,-138,-151,-183,-53,-65,-48,-101,-19,-120,-140,-106,-82,-151,-43,-88,-93,-57,-126,-47,-42,-114,-88,-113,-84,-121,-23,-119,-229,-136,-118,-94,-162,-25,-86,-65,-105,-69,-191,-102,-116,-97,-52,-188,8,-142,-137,-57,-10,-137,-11,-28,-179,-116,-91,-85,-81,-83,-87,-104,-72,-19,-126,-94,-136,-97,-203,-99,-69,-177,-178,-48,-133,-104,-64,-7,-38,-80,-143,-103,-148,-126,-187,-75,-68,-90,-92,-91,-75,-33,-104,-29,-94,-94,-151,-74,-79,-144,-117,19,-120,-82,-114,-138,-64,-63,-98,-79,-90,-142,-85,-121,-116,-119,-82,2,-76,-159,-112,40,-128,-188,-193,-102,-81,-97,-80,-133,-128,-127,-94,-144,-111,10,-86,-86,-58,-162,-78,82,24,26,79,116,85,30,30,62,51,39,92,-13,26,99,94,27,95,104,12,25,89,-23,103,87,122,66,146,89,17,101,8,81,173,52,96,70,115,79,72,118,-2,59,85,117,-26,153,104,106,63,63,25,41,67,-25,146,100,106,40,97,39,41,126,66,0,68,129,50,98,85,21,88,29,60,95,110,102,-32,85,67,50,142,-5,56,61,70,-13,97,47,24,103,103,62,37,70,30,21,55,69,126,96,32,39,7,99,8,125,104,28,131,137,99,70,101,51,43,106,88,78,117,79,23,75,64,21,50,-7,83,10,40,99,46,118,-15,25,39,16,38,140,84,102,85,14,72,25,94,39,76,135,-9,96,-4,90,24,88,76,68,104,13,63,134,58,70,12,93,20,42,114,65,96,15,33,8,142,-6,6,27,81,39,145,37,38,25,-25,131,26,128,58,24,45,68,127,101,72,91,-9,121,55,108,136,18,69,40,114,57,100,0,59,109,59,51,-16,107,1,97,30,62,33,4,86,48,109,29,111,48,78,-9,119,-22,65,98,40,9,15,89,37,48,109,85,32,90,63,109,98,116,50,78,42,65,43,81,48,139,33,166,39,25,51,30,196,83,92,10,49,31,76,49,82,3,41,36,63,43,14,43,-32,37,69,20,48,40,42,19,93,47,44,-9,83,41,122,64,116,37,111,137,98,139,46,0,78,112,27,197,68,95,98,64,73,72,97,28,88,56,58,70,58,116,78,59,127,34,-6,52,11,61,73,74,49,73,66,30,85,61,79,78,7,62,-14,7,85,-40,88,-1,17,113,52,109,34,115,64,26,85,33,99,62,109,48,100,112,45,87,75,169,2,124,5,51,99,-5,150,-8,40,-30,7,89,73,113,110,58,82,49,98,21,88,8,90,20,71,82,110,71,52,94,10,127,82,56,51,68,131,85,70,19,55,60,70,161,11,73,51,114,64,10,117,66,124,43,47,92,26,91,0,65,37,85,54,84,136,96,74,37,51,38,49,55,91,113,77,129,-3,71,21,81,19,95,58,-6,90,68,163,114,119,92,69,131,-46,105,127,-12,34,34,112,81,81,33,44,144,84,60,82,15,78,78,117,72,13,0,2,35,85,132,55,111,73,88,140,75,33,13,61,82,113,31,25,75,48,88,93,13,77,92,157,18,17,106,6,106,17,75,48,113,88,-12,51,72,80,10,39,97,83,54,68,72,87,62,127,70,114,-38,125,-16,95,126,33,99,87,85,86,30,21,118,87,34,29,81,0,83,109,42,48,30,63,53,-10,49,94,11,151,44,34,95,63,88,100,-8,71,76,-61,41,111,37,123,84,64,90,103,68,29,66,75,63,128,45,16,93,59,84,14,36,16,-1,100,63,67,129,109,-10,99,-52,8,118,119,67,102,28,59,124,69,107,101,74,124,10,23,142,57,99,26,-16,76,82,75,89,100,5,36,82,-39,14,51,72,57,79,53,40,84,-8,64,56,54,50,71,10,63,108,81,179,-60,158,23,87,54,51,70,104,128,97,75,30,154,56,92,45,-6,32,80,76,77,1,149,13,103,58,-2,74,77,-5,-11,10,-32,61,2,86,10,9,87,79,8,-1,71,67,98,9,14,65,24,51,56,74,62,48,50,56,62,120,94,95,42,63,81,77,77,115,7,62,50,73,33,76,99,94,86,81,48,-27,56,33,13,17,141,-12,95,20,-20,81,18,82,59,17,5,18,101,-8,58,44,103,82,-48,107,26,14,-8,103,2,135,39,55,41,11,94,101,91,74,74,119,68,121,21,11,117,12,125,119,43,105,55,75,-10,36,95,73,-13,49,-43,46,128,80,82,38,69,-35,148,-35,53,31,92,28,79,18,-5,134,30,109,60,93,125,38,38,-15,97,50,149,62,33,60,53,122,98,35,74,82,65,51,102,25,52,-25,72,116,109,22,131,-48,49,38,0,121,40,49,128,39,93,44,-46,98,77,95,78,103,-71,99,118,-18,172,29,59,93,44,-11,56,123,138,77,35,109,69,73,41,16,58,88,110,17,123,37,45,101,27,38,150,85,41,55,-27,145,101,73,49,49,64,76,14,-6,14,108,141,74,54,59,38,-145,-129,-221,-191,-194,-163,-199,-106,-149,-309,-168,-115,-178,-283,-169,-130,-216,-220,-156,-136,-116,-148,-187,-237,-221,-226,-214,-183,-187,-174,-169,-237,-252,-140,-270,-269,-142,-207,-288,-242,-52,-140,-276,-193,-136,-211,-231,-121,-186,-180,-221,-188,-138,-153,-238,-242,-231,-219,-179,-147,-228,-207,-79,-183,-271,-163,-154,-261,-228,-80,-189,-176,-108,-207,-184,-257,-188,-187,-201,-217,-249,-135,-191,-235,-90,-240,-286,-99,-125,-301,-256,-41,-215,-244,-133,-153,-213,-239,-190,-158,-201,-123,-218,-170,-204,-247,-174,-160,-253,-189,-182,-258,-199,-74,-241,-286,-152,-153,-315,-196,-83,-244,-256,-169,-173,-157,-208,-154,-151,-202,-204,-170,-54,-151,-153,-92,-218,-237,-144,-172,-295,-108,-164,-249,-187,-123,-240,-224,-157,-203,-194,-209,-175,-117,-166,-235,-170,-80,-147,-290,-153,-167,-268,-138,-111,-178,-255,-176,-258,-230,-113,-182,-181,-150,-173,-120,-215,-197,-157,-150,-148,-141,-95,-128,-222,-196,-137,-178,-196,-188,-209,-229,-174,-186,-176,-183,-196,-229,-209,-99,-147,-171,-255,-156,-134,-109,-196,-217,-130,-188,-167,-130,-102,-169,-193,-170,-146,-140,-165,-210,-115,-185,-239,-174,-46,-141,-146,-195,-194,-215,-78,-130,-197,-158,-124,-195,-248,-159,-101,-200,-185,-181,-202,-235,-195,-127,-151,-215,-211,-156,-141,-161,-179,-253,-270,-58,-127,-214,-280,-179,-117,-200,-134,-116,-167,-169,-137,-142,-145,-196,-137,-191,-154,-202,-203,-164,-149,-111,-197,-270,-140,-62,-187,-289,-106,-68,-155,-238,-165,-194,-214,-186,-177,-269,-258,-285,-132,-95,-251,-240,-253,-283,-183,-190,-354,-206,-83,-219,-246,-219,-122,-177,-175,-162,-194,-203,-177,-148,-197,-182,-187,-147,-86,-228,-267,-225,-245,-153,-129,-258,-238,-137,-146,-217,-206,-138,-114,-186,-158,-162,-175,-153,-99,-218,-232,-221,-242,-118,-172,-215,-225,-244,-246,-180,-222,-282,-209,-163,-190,-217,-238,-207,-193,-159,-206,-169,-201,-125,-174,-188,-141,-140,-106,-136,-215,-255,-279,-214,-152,-203,-205,-233,-178,-169,-182,-197,-189,-180,-139,-163,-159,-190,-119,-157,-272,-135,-175,-177,-214,-259,-175,-198,-192,-166,-192,-258,-214,-133,-267,-183,-202,-215,-235,-214,-152,-175,-163,-155,-150,-225,-128,-97,-161,-173,-157,-186,-293,-229,-166,-217,-194,-154,-155,-225,-203,-164,-219,-214,-200,-191,-185,-152,-172,-214,-233,-139,-171,-176,-264,-226,-225,-201,-210,-160,-84,-273,-282,-100,-146,-206,-243,-165,-144,-157,-211,-287,-206,-178,-206,-191,-224,-156,-183,-275,-173,-122,-157,-226,-164,-136,-218,-305,-142,-142,-234,-281,-148,-97,-141,-212,-267,-197,-121,-166,-225,-231,-119,-122,-235,-232,-238,-120,-235,-250,-115,-130,-269,-151,-89,-234,-220,-109,-186,-207,-168,-203,-215,-195,-142,-227,-225,-136,-134,-216,-231,-160,-76,-152,-228,-157,-157,-287,-155,-160,-230,-220,-205,-146,-179,-257,-209,-180,-177,-124,-132,-179,-212,-130,-95,-175,-182,-136,-82,-170,-194,-163,-240,-198,-80,-184,-283,-265,-102,-142,-226,-186,-56,-148,-216,-119,-198,-278,-133,-137,-195,-204,-191,-157,-185,-215,-195,-219,-185,-92,-184,-276,-244,-132,-59,-210,-259,-117,-150,-280,-111,-109,-174,-145,-109,-132,-219,-206,-182,-150,-210,-201,-202,-226,-170,-147,-247,-223,-157,-185,-217,-245,-106,-61,-222,-176,-69,-245,-169,-189,-206,-167,-119,-130,-183,-177,-200,-219,-198,-117,-165,-141,-216,-199,-137,-190,-230,-102,-74,-237,-264,-139,-93,-203,-184,-91,-194,-191,-148,-244,-204,-159,-196,-201,-227,-187,-173,-243,-119,-143,-249,-215,-122,-58,-148,-250,-136,-136,-134,-221,-192,-74,-70,-103,-162,-111,-156,-132,-107,-168,-209,-201,-144,-99,-146,-230,-228,-115,-4,-128,-201,-211,-129,-189,-207,-189,-129,-148,-151,-198,-245,-202,-149,-102,-176,-210,-281,-171,-50,-90,-207,-211,-146,-76,-132,-219,-202,-234,-79,-129,-165,-171,-47,-136,-160,-133,-166,-114,-58,-95,-125,-252,-218,-66,14,-157,-258,-161,-44,-147,-160,-178,-119,-174,-141,-159,-123,-132,-173,-156,-166,-146,-134,-123,-94,-171,-193,-308,-168,-43,-193,-275,-177,-87,-167,-169,-186,-216,-187,-167,-92,-185,-90,-143,-174,-181,-71,-151,-98,-105,-151,-163,-265,-200,-34,-113,-225,-154,-78,-217,-152,-161,-191,-164,-106,-110,-167,-100,-162,-173,-273,-117,-106,-185,-148,-186,-162,-216,-183,-124,-155,-280,-248,-93,-170,-181,-176,-237,-190,-210,-169,-110,-146,-144,-187,-249,-151,-135,-98,-156,-144,-183,-176,-159,-153,-156,-244,-201,-78,-167,-246,-120,-221,-185,-102,-125,-178,-172,-196,-165,-174,-300,-118,-92,-154,-230,-210,-178,-153,-191,-175,-192,-249,-80,-201,-213,-202,-164,-205,-187,-159,-206,-95,-144,-220,-192,-235,-193,-44,-191,-255,-138,-156,-122,-175,-196,-193,-120,-160,-202,-298,-153,-169,-176,-147,-104,45,108,76,154,67,92,191,30,167,147,101,64,110,99,171,76,101,145,71,71,104,87,61,130,158,110,118,70,29,121,0,74,96,55,100,78,189,73,155,67,87,110,79,91,83,129,102,141,88,29,97,43,50,102,131,192,134,226,98,116,137,96,80,135,112,201,79,127,147,95,99,21,61,113,30,176,96,153,137,76,109,93,167,185,119,198,112,99,74,171,56,87,198,117,66,50,182,18,99,87,148,198,95,132,100,187,51,31,76,45,32,183,113,110,46,157,-33,61,120,100,106,235,130,133,183,193,80,139,178,26,165,82,161,99,83,103,-17,180,56,159,130,186,72,69,154,131,99,129,177,140,79,122,171,105,141,1,23,-37,82,173,133,133,121,72,28,159,70,166,172,157,102,91,133,-18,33,108,106,146,128,110,42,112,76,-10,172,66,100,120,140,59,131,161,20,74,180,113,68,203,134,48,98,100,109,135,44,71,103,160,97,54,126,24,111,114,178,27,96,86,140,18,143,115,80,133,64,101,84,185,7,134,116,58,43,66,202,46,130,67,82,20,128,109,120,70,183,31,67,64,21,86,73,121,59,167,42,56,106,141,118,82,121,94,111,100,163,63,108,30,51,92,202,123,98,225,50,85,138,92,56,119,142,99,170,76,72,-7,78,82,-9,106,93,20,125,98,129,15,146,104,126,128,96,120,177,50,163,124,125,66,140,133,51,73,130,127,22,150,98,128,70,139,124,76,112,69,121,119,134,124,118,117,81,131,130,130,147,98,175,112,169,152,147,86,118,137,40,158,179,176,157,150,94,178,228,29,170,150,66,79,79,78,43,152,132,109,60,67,110,80,100,197,21,83,65,87,113,164,133,84,130,151,113,189,106,175,126,44,96,17,131,101,18,123,-26,74,35,62,115,107,96,30,102,130,101,82,83,124,4,144,107,160,182,161,140,55,164,85,133,97,101,112,30,199,127,132,143,126,168,153,196,86,146,136,68,119,-31,217,146,125,128,135,92,117,175,64,98,114,22,47,144,74,74,85,81,58,135,91,187,123,124,191,72,18,68,89,71,77,155,107,91,155,151,120,148,79,126,108,28,84,130,52,144,33,139,99,157,141,7,103,134,45,157,98,109,138,114,126,90,136,62,35,151,133,99,101,118,116,197,66,124,75,53,143,91,101,84,102,153,138,126,134,110,90,106,20,151,99,62,130,81,27,72,116,129,9,104,128,113,79,145,186,130,130,64,18,104,73,139,109,100,95,120,140,13,123,206,20,79,171,100,86,153,85,182,109,103,110,23,88,181,63,97,64,0,157,106,70,115,116,87,170,41,156,17,135,201,69,131,109,123,80,107,53,106,95,179,57,205,90,-36,177,90,116,154,150,129,64,90,152,21,21,122,56,74,110,179,191,116,63,102,-7,52,34,129,108,74,48,93,93,155,211,92,85,79,168,43,107,142,138,78,60,121,93,51,101,135,13,70,93,66,165,103,39,74,167,41,118,172,-13,60,206,153,101,109,170,122,113,158,76,48,46,127,0,124,86,102,78,123,129,51,100,131,45,107,114,35,133,134,125,93,125,65,96,88,85,136,-26,208,69,180,145,48,-5,40,157,80,120,21,133,83,104,73,110,208,87,13,48,79,7,66,135,148,37,112,107,83,83,97,138,89,84,102,70,111,16,122,81,93,33,92,146,86,-6,137,59,101,-27,105,0,136,60,61,111,171,86,72,80,24,3,146,13,6,63,134,79,128,115,110,18,60,89,82,133,132,78,126,104,140,-4,139,95,18,32,140,-1,162,107,118,68,87,122,108,119,122,138,57,119,108,3,176,86,3,116,47,25,158,-45,215,103,63,136,55,73,127,81,77,147,61,48,80,151,77,41,118,125,134,36,98,144,82,43,181,71,102,187,113,-5,9,51,126,150,73,255,8,136,22,95,156,91,45,116,177,137,30,123,160,43,72,108,64,97,148,94,45,90,54,123,75,149,92,205,86,15,153,105,128,82,26,157,145,52,115,125,146,185,116,27,59,102,95,160,52,191,61,119,69,212,22,87,135,58,78,53,82,59,45,72,69,20,74,112,22,39,25,43,37,88,24,66,40,50,21,11,-9,118,11,73,1,2,59,15,49,-17,55,7,3,59,37,58,59,56,32,28,52,25,86,55,40,33,105,-14,122,32,35,38,76,46,99,149,91,39,98,22,8,30,105,78,37,73,86,36,0,75,52,36,0,52,38,85,20,40,26,39,45,43,81,80,93,66,39,23,44,-5,75,109,50,20,54,37,14,44,106,29,71,7,3,34,58,24,-8,-23,-39,15,73,15,51,46,63,8,26,-2,60,96,33,98,71,82,12,37,1,45,11,82,34,90,134,46,52,77,44,3,118,85,42,58,120,65,-5,7,89,-6,22,17,67,11,50,8,49,6,-78,38,18,60,92,26,27,32,89,14,41,124,28,2,45,48,-25,-18,44,57,61,72,44,84,14,51,88,46,-2,52,20,46,24,58,-7,44,46,-29,45,74,88,24,49,1,84,9,29,28,87,17,0,65,25,30,0,63,50,48,35,55,48,76,26,80,48,98,8,13,37,100,21,94,65,47,-3,25,48,48,82,55,12,9,-8,23,48,70,28,31,41,-24,22,-10,-1,28,28,-29,90,16,8,5,91,57,10,53,70,23,73,99,80,18,5,81,53,83,91,107,59,82,78,97,22,90,55,84,22,78,48,27,28,30,23,29,7,51,44,80,53,46,17,11,0,-24,4,52,33,14,111,55,7,0,58,69,-10,40,29,22,74,45,102,21,54,67,61,137,41,11,33,65,113,77,27,47,81,59,39,121,65,77,57,95,40,71,7,78,28,33,58,2,90,-4,43,101,18,63,75,45,65,59,34,5,77,-18,36,7,33,12,34,-40,32,-29,22,48,41,64,3,2,15,58,59,21,29,43,46,93,103,103,22,96,41,31,47,60,53,73,7,21,29,-11,10,21,0,63,79,51,29,71,41,-10,33,8,36,-18,106,97,80,92,58,91,62,77,47,49,93,80,63,61,113,22,61,119,76,81,35,79,77,-12,20,41,-8,46,97,81,23,64,86,13,72,53,0,-31,25,61,43,17,1,48,20,53,75,25,50,95,103,-9,39,30,-20,11,74,34,20,72,42,41,95,94,70,37,45,57,30,53,0,117,-22,35,48,17,22,95,47,-1,85,92,14,57,80,11,43,37,15,92,42,23,55,29,61,5,110,111,67,22,54,96,80,-7,-14,75,42,31,60,63,16,84,12,13,37,83,70,10,10,36,-27,1,30,45,21,80,72,42,49,44,70,67,-2,-10,-13,14,97,41,64,111,107,112,4,32,69,-7,87,86,7,66,84,58,24,52,41,19,-32,15,84,58,58,40,33,1,8,62,59,2,102,78,-2,68,63,41,50,48,73,82,-13,37,57,40,6,60,8,58,89,78,72,22,58,63,82,72,3,30,61,34,59,-11,-18,18,21,29,33,82,105,19,36,81,-41,56,-19,39,40,53,28,32,80,48,102,68,88,25,94,98,94,40,66,27,23,40,-9,13,62,59,97,69,66,8,28,6,5,0,-62,40,29,24,19,54,26,64,40,1,12,62,107,16,4,82,15,44,28,62,36,38,68,46,32,72,98,17,32,61,77,28,34,61,25,-2,21,91,8,58,20,85,37,18,92,49,8,0,-27,-53,67,-8,29,25,-2,15,1,70,55,7,-2,37,26,-35,23,43,12,79,-9,55,-24,76,60,72,66,92,28,96,30,20,26,39,97,60,14,48,36,85,34,78,36,67,10,42,1,35,-7,45,1,20,46,25,9,13,-7,2,-23,69,30,43,84,27,64,-25,30,-20,41,71,104,70,40,82,40,22,14,81,-4,78,38,20,39,67,122,102,80,5,45,125,39,64,48,107,21,1,66,70,72,-31,25,63,49,6,116,22,0,61,1,2,34,69,46,21,65,-22,10,26,14,29,60,86,-41,99,75,46,69,106,96,66,-10,71,27,1,44,32,39,7,88,144,75,29,71,23,22,62,61,34,52,38,61,50,28,83,19,39,22,-10,30,96,71,70,32,-5,71,-35,32,45,89,73,73,46,9,62,-52,41,71,39,33,105,34,48,89,60,67,-2,37,53,84,91,49,-50,94,12,30,59,65,3};
const static uint32_t ref1_dims[4] = {1,10,36,25};
const static ConstTensor_t ref1 = {&ref1_weights[0],&ref1_dims[0]};

